%YAML:1.0
---
opencv_ml_svm:
   format: 3
   svmType: C_SVC
   kernel:
      type: LINEAR
   C: 1.
   term_criteria: { epsilon:1.1920928955078125e-07, iterations:1000 }
   var_count: 6
   class_count: 6
   class_labels: !!opencv-matrix
      rows: 6
      cols: 1
      dt: i
      data: [ 0, 1, 2, 3, 4, 5 ]
   sv_total: 15
   support_vectors:
      - [ -8.97080675e-02, -4.09765169e-04, -1.17687387e-02,
          2.75075156e-03, -2.09958386e-03, -3.39077832e-03 ]
      - [ 1.95380393e-03, 3.99934972e-04, -2.29475065e-03,
          -4.11008624e-03, -3.29508749e-03, -4.53801919e-03 ]
      - [ -7.99345318e-04, 6.48965733e-03, -3.61936423e-03,
          -1.13015517e-03, -3.32253822e-03, -3.64149152e-03 ]
      - [ 4.47914295e-04, 2.03793612e-03, -1.63205503e-03,
          -4.62830067e-03, -5.66524407e-03, -4.89360513e-03 ]
      - [ 1.77110045e-03, 6.71649212e-03, -4.21958184e-03,
          -5.31884097e-03, -3.75099853e-03, -3.74609767e-03 ]
      - [ 2.88542965e-03, 1.23358925e-03, -6.14017481e-04,
          -4.44780709e-03, -3.14775435e-03, -4.63324925e-03 ]
      - [ 4.18242009e-04, 7.70475436e-03, -1.28490385e-03,
          -1.22965814e-03, -4.35975473e-03, -3.19413748e-03 ]
      - [ 6.43362233e-04, 2.44302070e-03, 1.08832982e-03,
          -4.72822320e-03, -5.94098773e-03, -4.44267225e-03 ]
      - [ 3.37944739e-03, 8.27313494e-03, -1.42583589e-03,
          -4.88541741e-03, -2.70559499e-03, -4.24893945e-03 ]
      - [ -6.66686567e-03, 1.06941294e-02, 7.55926687e-03,
          4.26043663e-03, -1.94533044e-04, 5.95292682e-03 ]
      - [ 6.84991665e-03, 1.66348033e-02, 3.92548777e-02, 1.49136614e-02,
          1.39111215e-02, 2.15168893e-02 ]
      - [ -2.39466019e-02, 1.05011901e-02, 1.24664223e-02,
          1.25818420e-02, 4.91052028e-03, 1.66154448e-02 ]
      - [ -2.30036117e-03, -1.37964245e-02, 5.91227738e-03,
          -7.41066830e-03, -3.55386292e-03, -1.69434783e-03 ]
      - [ 7.23122284e-02, -6.66181296e-02, -3.92584577e-02,
          3.41514568e-03, 1.45654446e-02, -1.89861152e-02 ]
      - [ 5.33198984e-03, 2.04581358e-02, -9.58192162e-03,
          9.94615722e-03, 7.99072627e-03, 1.77973248e-02 ]
   uncompressed_sv_total: 42
   uncompressed_support_vectors:
      - [ 86., 253., 154., 0., 0., 0. ]
      - [ 87., 236., 146., 10., 4., 9. ]
      - [ 77., 214., 114., 13., 18., 9. ]
      - [ 78., 217., 117., 13., 17., 9. ]
      - [ 176., 117., 167., 167., 145., 107. ]
      - [ 101., 161., 154., 123., 154., 123. ]
      - [ 177., 133., 164., 156., 163., 113. ]
      - [ 5., 160., 155., 122., 155., 123. ]
      - [ 2., 205., 155., 129., 154., 154. ]
      - [ 3., 214., 148., 126., 143., 148. ]
      - [ 68., 160., 153., 122., 153., 122. ]
      - [ 105., 228., 192., 11., 14., 20. ]
      - [ 106., 224., 179., 12., 13., 21. ]
      - [ 110., 253., 141., 0., 0., 0. ]
      - [ 107., 248., 163., 2., 2., 4. ]
      - [ 56., 90., 233., 157., 13., 162. ]
      - [ 35., 121., 159., 123., 144., 53. ]
      - [ 37., 122., 156., 112., 137., 52. ]
      - [ 48., 40., 247., 6., 213., 224. ]
      - [ 51., 100., 183., 132., 62., 36. ]
      - [ 66., 85., 241., 21., 10., 160. ]
      - [ 46., 38., 248., 6., 228., 220. ]
      - [ 43., 29., 249., 4., 236., 149. ]
      - [ 60., 75., 180., 129., 37., 65. ]
      - [ 53., 90., 185., 135., 37., 37. ]
      - [ 19., 84., 254., 102., 29., 254. ]
      - [ 28., 88., 252., 129., 7., 252. ]
      - [ 16., 128., 253., 253., 57., 100. ]
      - [ 7., 157., 211., 177., 202., 116. ]
      - [ 8., 231., 178., 134., 158., 178. ]
      - [ 8., 228., 178., 133., 161., 178. ]
      - [ 98., 62., 194., 42., 90., 146. ]
      - [ 100., 68., 211., 37., 148., 141. ]
      - [ 100., 68., 213., 37., 154., 139. ]
      - [ 99., 63., 209., 37., 151., 153. ]
      - [ 100., 73., 220., 33., 157., 111. ]
      - [ 99., 62., 253., 91., 191., 15. ]
      - [ 0., 0., 249., 78., 249., 5. ]
      - [ 39., 11., 162., 143., 58., 160. ]
      - [ 75., 13., 154., 145., 57., 146. ]
      - [ 99., 70., 239., 23., 173., 28. ]
      - [ 95., 44., 178., 53., 49., 147. ]
   decision_functions:
      -
         sv_count: 1
         rho: -1.0630950173093431e+01
         alpha: [ 1. ]
         index: [ 0 ]
      -
         sv_count: 1
         rho: -1.1795930313928102e+00
         alpha: [ 1. ]
         index: [ 1 ]
      -
         sv_count: 1
         rho: -1.9264158569336651e-01
         alpha: [ 1. ]
         index: [ 2 ]
      -
         sv_count: 1
         rho: -9.2163135565288468e-01
         alpha: [ 1. ]
         index: [ 3 ]
      -
         sv_count: 1
         rho: -7.7706101482581585e-02
         alpha: [ 1. ]
         index: [ 4 ]
      -
         sv_count: 1
         rho: -7.1932226708088132e-01
         alpha: [ 1. ]
         index: [ 5 ]
      -
         sv_count: 1
         rho: 4.0169122237170735e-01
         alpha: [ 1. ]
         index: [ 6 ]
      -
         sv_count: 1
         rho: -4.1702358143782065e-01
         alpha: [ 1. ]
         index: [ 7 ]
      -
         sv_count: 1
         rho: 7.7315355967081612e-01
         alpha: [ 1. ]
         index: [ 8 ]
      -
         sv_count: 1
         rho: 3.6326567221006183e+00
         alpha: [ 1. ]
         index: [ 9 ]
      -
         sv_count: 1
         rho: 1.7888116169236138e+01
         alpha: [ 1. ]
         index: [ 10 ]
      -
         sv_count: 1
         rho: 8.2396618782019342e+00
         alpha: [ 1. ]
         index: [ 11 ]
      -
         sv_count: 1
         rho: -1.9658818456071061e+00
         alpha: [ 1. ]
         index: [ 12 ]
      -
         sv_count: 1
         rho: -6.9771814623925978e+00
         alpha: [ 1. ]
         index: [ 13 ]
      -
         sv_count: 1
         rho: 5.4558287735622120e+00
         alpha: [ 1. ]
         index: [ 14 ]
